-9.04863670e-01
3.45831782e-01
-2.11768078e-01
-7.22885605e-01
9.03741514e-01
-4.04505297e-01
-4.90008413e-01
-9.50987724e-01
-7.85112946e-01
-7.00261097e-01
-5.98369963e-01
-5.35829669e-01
-9.40061808e-01
2.42355813e-01
3.53031940e-01
-4.34512055e-01
-9.69192888e-02
3.73708754e-01
2.72713773e-01
9.29550443e-01
8.63878246e-01
-5.57784134e-01
-8.40089608e-01
-4.55425393e-02
-3.03150910e-01
5.05347572e-01
4.84593915e-01
-6.11014161e-01
1.62693374e-01
-4.95226960e-01
-6.50917993e-01
9.16656427e-02
-5.40053575e-01
-2.29515567e-01
6.50813737e-01
6.07868309e-01
6.64395237e-01
6.57910423e-01
-2.88545865e-01
5.40890263e-01
4.77649877e-01
2.69877827e-01
-4.87801217e-01
3.45776949e-02
8.21502197e-01
6.27415868e-01
1.05264667e+00
2.93210973e-01
6.93636449e-01
-5.01383398e-01
4.22242935e-01
4.57987657e-01
-2.10671092e-01
-8.53371620e-01
-1.06136470e-01
2.15544236e-01
5.90401598e-01
3.21464450e-02
-8.14122480e-01
6.17233238e-01
4.16873385e-02
2.14570078e-01
-9.69153747e-01
-6.25263229e-02
-6.52978917e-01
-3.72725142e-01
6.24464484e-01
2.31617779e-01
3.85448055e-01
-3.50866773e-01
-8.97519548e-02
7.56491066e-01
-7.84761246e-01
1.60345235e-01
7.35537204e-01
6.95612749e-01
-8.06571617e-01
8.96485423e-01
-4.72413457e-01
-1.74927590e-01
-8.50601571e-01
-1.47981106e-01
-5.84761359e-01
-7.36246578e-02
-8.96056762e-01
-3.73258332e-01
-5.05587762e-01
-8.57874680e-01
-2.05501892e-01
7.40630614e-01
1.73523019e-01
2.43199487e-01
4.12057056e-01
-4.66309990e-01
-7.03671466e-01
-8.88245769e-01
-1.62132005e-01
2.20686982e-02
-7.18703513e-01
7.62914158e-01
8.54708225e-01
9.46090383e-01
-7.03399368e-01
1.68414717e-01
-1.47830683e-01
8.50904972e-01
1.87939491e-01
1.01862241e+00
4.00081404e-01
-2.60759815e-01
-1.28132765e-01
-7.28873875e-01
-2.51738085e-01
-4.07318497e-01
5.12206245e-01
-7.42065016e-01
-6.77957117e-01
-1.48134508e-01
7.61493514e-01
-8.68363018e-01
5.76229095e-01
9.34516042e-01
9.44560808e-01
3.26592147e-01
8.16312095e-01
4.25122169e-01
-8.15144977e-01
-3.35115553e-02
-7.13042101e-01
-9.01605356e-01
7.86805990e-02
8.20686501e-01
9.27303962e-01
7.37408730e-01
9.84747190e-01
9.65164568e-01
-3.48699343e-01
8.23581212e-01
-4.31893192e-01
3.85594049e-01
8.41157593e-01
9.93403472e-01
2.25377056e-01
-3.25416340e-01
-1.64483697e-01
9.52637059e-01
3.96495756e-01
7.32104998e-01
-7.73042242e-01
1.10877326e-01
-2.20519065e-02
8.63325991e-01
2.42609652e-01
4.85735253e-01
-2.32230531e-01
-1.11840976e-01
5.90951952e-02
-9.98658777e-01
-9.84078215e-01
6.36290435e-01
2.93256698e-01
3.44666057e-02
6.99150245e-01
2.24385684e-01
-3.30221670e-02
5.85730619e-01
3.91463223e-01
4.57930084e-01
6.38565540e-01
-8.42514203e-01
-1.28217373e-01
-8.40389435e-01
7.85082866e-01
-2.91669200e-01
-8.93213045e-01
8.02760859e-01
5.28110977e-01
-6.82133313e-01
5.44939880e-01
1.86439168e-01
-2.17088009e-01
-7.66836652e-01
-9.35400941e-02
7.55256068e-01
1.65235858e-04
-1.24505122e+00
4.28874335e-01
3.37796002e-01
-9.12517776e-01
9.43854643e-01
-4.72780981e-01
6.01411646e-01
-6.84677791e-01
1.30341285e-01
7.91284496e-01
6.07688766e-01
-3.33809064e-01
4.18480992e-01
-3.92283412e-01
-7.99925749e-01
-9.01242504e-01
5.19991600e-01
-3.59881547e-01
3.44007505e-01
4.37218769e-01
7.14522763e-01
6.47545878e-01
-9.37415510e-01
7.52777379e-01
1.92611092e-01
-5.98917083e-01
-4.73779109e-01
7.33754524e-01
-2.36776393e-01
8.68423181e-01
6.48581743e-01
9.10808955e-01
-9.53090631e-01
4.69504996e-01
7.04601171e-01
2.35296871e-01
-4.02657260e-01
5.18418988e-02
1.01699766e-01
-9.31428142e-01
-8.33178071e-01
3.78771525e-01
4.81475613e-01
-7.34876087e-01
3.75168968e-01
-9.56131943e-01
-8.63352633e-01
-4.00333536e-01
-2.03499518e-01
1.56364004e+00
2.98122025e-01
-2.46852049e-01
2.77036434e-01
8.93278390e-01
4.69557515e-01
-2.56507643e-01
-1.25260978e-03
7.39046833e-01
3.46793724e-01
4.48300958e-01
3.97116772e-01
5.91807562e-01
4.16405031e-01
-7.78775981e-01
4.12617949e-01
-6.80647559e-01
9.69307232e-01
-5.48310035e-01
3.01533032e-01
3.81903235e-01
5.58015495e-01
-7.63779997e-01
7.58786100e-01
5.67017585e-01
-3.29286968e-01
-4.96967920e-01
-4.84734206e-01
8.61212052e-02
-3.20431592e-02
1.96943021e-01