[0.10000528509075977, 0.03662846705471556, 5.06580847837667, 0.2690825948346115, -0.0017529861906223996, -0.49951934560947114, 0.14497950814375282, 1.2525297748634296, 0.48090046656539703, -0.25583781073638656, -0.06610596545962728, 5.3971503132010215, 0.42571965753472346, -0.06302156162229612, 0.06485796608754076, -0.19976599211861384, 0.44940733300857466, -0.3452980924528213, 9.786002754642183, 0.42199591393871444, 2.415004283035902, 1.9902715785312475, -0.8603943170943124, 0.11163587024971094, -0.18521214507627007, -0.06801469324768972, 0.14335378659322923, -1.4207962253062592, 0.0960036074393305, 0.3774739680710788, 0.11994243749072883, 0.19756910254740756, -0.030650924382482667, 15.392359740244881, 0.12972195270477704, -0.6058339879344926, -2.0368575841618672, -0.47776990083152054, 0.01713439703781086, -0.5037532399208906, -0.2423386774689144, 112.61363768829477, 0.5871895813551902, -1.8944339311086797, 0.7315933592737184, 0.05257144913452465, 0.09714175330486974, 0.00015299623283930204, -0.06760895883845865, 0.26592587648960797, -1.258773043803524, -0.3930761065065048, -1.607820912365713, -0.034093470927849936, -0.06663374900196131, 0.29611452007187505, -0.21472853592505373, -0.06122874185258885, -0.5338574032743053, -0.20925887176239913, -0.11183223037142209, -55.55088829849696, 1.1684098289418723, 0.030623779529495826, 0.22210740086791214, -0.9085209068852829, -0.04683952934029722, -0.13280351919739924, 0.1227497419656197, -0.06289995502763308, -0.19136017943709166, 0.4254286429370275, -0.06292608493066443, -7.472264276759379, -0.0846850314303931, -10.29822157735553, -0.8509251303142272, -7.076378414704912, -2.7131352595310334, 0.10951583086263045, -6.060437232025258, 0.2468294358189653, -0.10661396277020357, 0.08387270570446789, 0.0728383403583274, -0.3408123539565356, 0.6246471609484289, 0.032279901588799, -0.2089198765710002, -0.05550369064138483, -0.7897724477565942, -0.5046444085005997, 0.09743890612734596, -0.36141157905721993, 0.08588915683825554, -0.30420430631744844, -16.799841663052334, -0.09835578208850711, 0.4554901241039616, -0.6085391202295775, -0.2056461255358266, 0.008399405564206184, -0.5992732319679207, -0.22203281411228032, -0.0340885610343702, -0.3229194382621329, 0.17957403837736635, -0.4563959738968659, 0.25484236521870957, -0.1278928378415461, 0.4444324291592065, 0.03974553316272763, -0.14206414857643945, 0.5334317328895495, -0.38496338502006333, -0.22091865906089653, -0.09709198366951655, 0.5571194331550625, -0.03016899292273293, 0.02641867430363162, 0.6469094717276058, -0.037174512114631984, -1.8368268747336367, -0.27160638428552214, -3.7365600644043355, -1.8776463399508252, -0.021112469146532285, -0.455159253671677, -0.09617120831361778, 0.04050822175714303, 0.11963841146855403, -0.1322287779664375, 0.13820734273978635, -0.38097510697510045, -1.2377914604193108, -0.14931799163966092, 4.6019169458363285, 0.18828110037381773, -0.4823000975305911, 41.080848969963306, -1.1921608592173367, -0.09594467182749133, -0.10585635334893262, 0.041863599150527606, 0.21425093427417463, -0.32599826109228625, -2.546472130889925, 0.33745040439112595, 0.02230534955843702, -0.06969805326599629, -0.16017228794194827, -0.11558861904734503, -2.100172714867555, 0.4926739816630471, 0.960862750966875, 0.0428443886772638, -0.10274244148186841, -0.07770878789858349, 0.700486147786113, 0.07815249702306767, -0.010780037892155129, -1.0405489157596777, -0.11755413191539663, 0.16792099347797773, -0.34374302449738664, -0.036355028012499506, -2.1219629257806405, -0.3242078314406651, -0.10229965729734952, -0.12863055989824027, -0.6605093385290339, -103.49666818029621, -0.25767687424403696, -0.21607537667768417, 0.48783391055725867, -0.27809583995941844, 0.5010667284277486, -2.4137834941585137, -9.249418570955765, -3.4609703940591388, -0.9284517336946947, 0.341665535315796, -0.5326213061430114, 0.18865068907464563, -0.12070969415437177, -0.04193969402244498, -1.8548947317243503, 2.6603572928008505, -0.2616116351818898, 0.058974582944348736, 0.0790438832784465, 0.16547512913902074, 0.04561811984723564, 0.020959227064758768, -0.10913545241480055, 0.2597944754910685, 0.2831892268202034, -7.837154990088088, 0.012048350262625785, 0.06978372407527436, 0.09975096621696702, 0.13407854748456954, 0.4423617019307055, 0.7654940048861899, 189.15260537609254, -0.24358904897106431, 0.5132057645002872, 6.426876667319709, -0.520069513042026, 1.2770404613603459, -0.2800932806488972, -0.4508135173861348, -0.5681317043972485, 0.16284187335144557, 0.12034153458598638, 0.07477291384346185, 0.26115445694234735, 0.08231332080345855, -0.18958308369347313, -0.3114952181898498, 0.41746475472434963, -0.015099471596699346, 4.826854859278258, -0.013429662325591757, 0.12897520766951298, -0.06591017388600535, 1.1798348631532543, 0.09349055185344742, 0.12962424496221484, -0.25971184067431397, -0.5891908729152248, 0.10386929543055204, 0.11912522830000746, -0.17814722567469837, -0.053986380225230876, -5.863245104413959, -0.250797212602233, 0.5717547248731393, -1.435851716153096, -0.11969622470100894, 0.0750115643306371, 0.1559601544956781, -0.2256680798800363, -0.08130282648462336, 2.3299240143255826, 0.024657867239080436, -0.13361577577710546, 0.18334364702732947, -1.0482513605228363, 0.7789727640715469, 0.40892854018582625, -0.11422332162364117, -1.1680395149982226, -0.03228582747102607, 0.5445880165933146, 0.2311798601538733, -0.3591435496409223, 0.5044985088520599, 0.2176711264348357, -0.13979712403598732, -0.8044841079128159, -6.141252245185287, 23.748373831936807, 1.69553277382258, -0.6704734866951148]