[0.07506480180948294, 0.10809247510512582, 0.09163431880494544, 0.19403476130173591, -0.1320982409106967, 0.1333802059656637, -0.22324309663561465, 0.1747435577037783, 0.2772233968489874, 0.2273497032680556, -0.17373834641779756, -0.0909073337843457, -0.13753304818154954, 0.1002052306618603, -0.36599920387330265, -0.038209635141915145, -3.3248059469511686, -0.3832450194935465, -0.07596348665855182, -0.899447410740976, 0.05205685305724095, -0.4503145579848301, -0.038347613232172964, -0.05223933824490157, -0.060329013023255246, -0.264704753398787, -0.10243460870983231, -0.11988373408988523, 0.21942659893205219, -0.745202021681413, 0.13433961969885017, -0.11758695180797638, -0.40045019125681436, 0.10951721550927562, -0.47268636161241884, 0.2227689725395977, -0.10855105946036817, -0.11476507387973914, 0.10609141650651847, -0.08556567192311793, -0.017696078132779364, 0.20015296566156793, -0.6876458962681946, 0.2782702404177595, -0.5119923257865412, 0.14780734577842475, 0.019488676632516893, 0.7972357327319236, -0.33104561512529473, -0.0643176629423298, -0.17699217895070385, 3.692768011268199, 0.0680449064924043, -0.37809717838698464, 0.017829405859481486, -0.1676240082255309, -0.018349835855150914, -0.1822111413238332, -0.03085080264859444, 0.5956110761377993, 0.032211066678120084, -0.036924856562706124, 0.1471818799218064, -1.7584240475832593, 0.13799342941978354, 0.2543934349191179, 0.15756227073466564, 0.032635835002543606, 0.07235596445856536, -0.033202362113111714, 0.031791488172510526, 0.23638547080778924, 0.20192162694144755, -0.04514226927011065, -0.03315059864775136, -0.15317202840614821, 0.28378514759130014, -0.13628005581341363, 0.04063165365397442, -0.14432688621585318, 0.5868853282144549, 0.2705538450610056, -0.07571147242288272, 0.13187119811373116, 0.2381655304039373, 0.13679532167887826, -0.1440411059137227, -0.5725196294799472, 0.03961283454687105, -0.027256028528352134, 0.046064111271231896, 0.1689760563768075, -0.03550774588467258, -0.5806830043350316, 0.5940366020128902, 0.3667998249024954, 0.006391722365656043, -0.05183966941440454, -0.35696862400930124, -0.04092888045318363, 0.04637056992591041, -0.199932204083844, 0.2990978307519305, 0.5186348601781441, 0.05079797003343084, 0.0005123401261357219, -1.2135133977131873, -0.09919476422550055, -0.04591290791794579, -0.19677508154234025, -0.01320312384330768, -1.3229855382708147, 0.030169170781410678, 0.14073418867360743, -1.0497980942499496, 0.07640751732037938, -0.31709064371283824, -0.01811400605573475, -0.1048265751204858, -0.3242225006873547, -0.47664065569222913, -0.20448078076507767, -0.12192125642642976, 0.0014174729412746443, -0.16751400864078625, 0.2523551760935627, -0.021280132341193955, -0.08649327816532776, 0.7098729599835134, -14.397061845264151, 0.025548275758061893, 0.055144650447691526, -0.35081067234568336, 0.8239586759315609, 0.0415754337588511, 0.0023317488306677284, -0.533974667509164, 0.03788406951536746, 0.151924786796102, 0.09873155266107259, 0.6052414673969653, 0.1682266570779375, -0.06608078254097216, -0.2159596254317576, -0.052611460820623804, -0.6349228206293294, -0.07357396267795518, -0.12675572149666164, 0.0968948348636117, -0.008857674040019962, -0.15809463305616284, -0.21007151391352524, 0.11914953830966646, -0.7927955004366352, 0.056492673324840384, -0.18926436205811537, 0.023282646760979575, 0.18046362413226882, -0.12938921830851524, -0.005977762031506944, 0.07758104602092432, 0.12438366183970322, 0.037151246257194334, 0.0812790878322456, 0.20675782656846303, 0.09107850948739385, 0.0234719733136699, -0.23199897689452487, -0.19726506312361594, -0.07381813911828557, 0.312202913184743, 0.041708672820490705, 0.6010601713996777, 0.15575179931836433, -0.009534161779012009, -0.01316558029538728, 0.07993835539652326, 0.6089476434052818, 0.09880614598259015, -0.0012128978793554748, -0.0869498451009073, 1.3002898114311723, -0.028243742752931025, -0.0699689280434661, 0.491345544659164, 0.09116447115364844, 0.15547834646650485, -0.36553378361193894, -0.3924506621533892, 0.06794277228054349, 0.11421559329981701, 0.39879140594374585, -2.636234599051779, -0.0508069607888566, 0.25523120256366955, 0.2865188575996718, 0.09761367144815015, 0.5930423162323042, 0.13807269511505998, -0.3049778240197302, 0.7883467650054207, 1.525109000184442, -0.8253955529741502, -36.43274350948787, -2.979815790703345, 0.9098415634394287, 0.022318163597192964, -0.801608206321955, 1.0817194724858918, -0.5421645941779919, -0.10963413013089061, -0.05349229843156441, 0.05874207093599571, -0.05789818404865876, -0.08155207347213742, 0.2629042593201595, -0.3869988879199435, -0.47603056997349696, 0.09617464222662431, 0.3773333960503258, 0.09205193656452049, -6.01329553317583, 0.21636243189355595, -0.04806982105536593, 0.4105088804055715, -0.3386474901626204, 0.048826021299901406, -0.04222348196224321, -0.7374588885100761, 0.11301322966347295, 0.5012716010020044, 0.12126191563227735, 0.27136651484329377, -0.06531816235517852, -0.2725053059285766, -0.12195101611609072, -0.538814613330654, 0.421815445337018, -0.2149252989867681, -0.06886169971178444, -0.1400538199090104, -0.06336307308809275, 0.3973909755806222, 0.03779595590897949, -4.456003770599434, -0.527210156054482, 0.34847488493727136, 0.058506484146204886, 0.31620342590049266, 0.2683148008606073, 0.07453405553861625, 0.24490719595762234, 0.23210251857454967, -0.11648887241249722, 0.04835525824405568, -0.07131963820538777, 1.6705986293080886, -0.1925217480975308, -0.34122028115035197, -0.09436620826776843, -2.819534547048191, -0.057848007943305954, 0.613731820896096, 0.11777806047914918, 0.07858856668209917]